{"125": {"SCNN_3_1_conv_1_dense_arg_dict_default": {"lr_epoch_log_dict": "{0: 0.001, 1: 0.001, 2: 0.001, 3: 0.001, 4: 0.001, 5: 0.001, 6: 0.001, 7: 0.001, 8: 0.001, 9: 0.001, 10: 0.001, 11: 0.001, 12: 0.001, 13: 0.001, 14: 0.001, 15: 0.00020000001, 16: 0.00020000001, 17: 0.00020000001, 18: 0.00020000001, 19: 4.0000003e-05, 20: 4.0000003e-05, 21: 4.0000003e-05, 22: 4.0000003e-05, 23: 4.0000003e-05, 24: 8.000001e-06, 25: 8.000001e-06, 26: 8.000001e-06, 27: 1.6000001e-06, 28: 1.6000001e-06, 29: 1e-06, 30: 1e-06, 31: 1e-06, 32: 1e-06, 33: 1e-06, 34: 1e-06, 35: 1e-06, 36: 1e-06, 37: 1e-06, 38: 1e-06, 39: 1e-06, 40: 1e-06, 41: 1e-06, 42: 1e-06, 43: 1e-06, 44: 1e-06, 45: 1e-06, 46: 1e-06, 47: 1e-06, 48: 1e-06, 49: 1e-06}", "loss_record_dict": {"loss": [19.307355880737305, 10.99902629852295, 5.823509693145752, 2.4534072875976562, 0.7675386071205139, 0.23061464726924896, 0.1303645223379135, 0.0941978320479393, 0.0798889547586441, 0.07159788906574249, 0.06834648549556732, 0.06672698259353638, 0.0667777806520462, 0.06671997159719467, 0.06760840117931366, 0.05867834761738777, 0.058277882635593414, 0.0580732487142086, 0.058097146451473236, 0.0559421181678772, 0.05576641857624054, 0.05575164034962654, 0.05581735074520111, 0.05560527369379997, 0.055064864456653595, 0.05497899651527405, 0.05524927005171776, 0.05488860607147217, 0.05472321808338165, 0.05495072528719902, 0.05514029040932655, 0.054941438138484955, 0.054688140749931335, 0.05498046427965164, 0.05463458597660065, 0.05483624339103699, 0.054688360542058945, 0.0547587051987648, 0.05494639277458191, 0.054899800568819046, 0.05462111905217171, 0.055152349174022675, 0.054783355444669724, 0.054882775992155075, 0.05478217825293541, 0.05484331026673317, 0.05491014942526817, 0.054695092141628265, 0.05482291802763939, 0.05491091310977936], "val_loss": [10.064621925354004, 5.220303058624268, 2.3343584537506104, 0.8826613426208496, 0.30982428789138794, 0.15277543663978577, 0.09556111693382263, 0.071836918592453, 0.06352172046899796, 0.058948688209056854, 0.05808297544717789, 0.058325670659542084, 0.05610894411802292, 0.0603112131357193, 0.059297818690538406, 0.050563961267471313, 0.04982220381498337, 0.050298310816287994, 0.050706326961517334, 0.04811890050768852, 0.04814564064145088, 0.04784902185201645, 0.04808488115668297, 0.04809519276022911, 0.04750963672995567, 0.047537826001644135, 0.04751092195510864, 0.04743430018424988, 0.04744395986199379, 0.047426559031009674, 0.0474422313272953, 0.04743369668722153, 0.04744444414973259, 0.04745690897107124, 0.04745493084192276, 0.047462087124586105, 0.04744076728820801, 0.04744696617126465, 0.04743840545415878, 0.04745066910982132, 0.04744758456945419, 0.047459982335567474, 0.04746069759130478, 0.047475025057792664, 0.047465503215789795, 0.04748072475194931, 0.04748371243476868, 0.04747020825743675, 0.04747496917843819, 0.04747559502720833]}, "metric_record_dict": {"roc_val": {"Train": [0.5841460421733582, 0.5875333378151959, 0.5777540110583532, 0.5857586762834154, 0.6517236578198439, 0.779843236847811, 0.8052651376240476, 0.8029788454588739, 0.8086646474257607, 0.8053922891975333, 0.799594578327989, 0.8001514363935444, 0.8007130145143931, 0.7994896462635801, 0.8101799603780664, 0.8107024223181936, 0.8084485302144109, 0.8093777407815548, 0.8088654072499584, 0.8097544963042321, 0.8097524230673954, 0.8098276352608913, 0.8096801267542796, 0.8099422076680162, 0.8099054150142926, 0.8098051133178694, 0.8098065337145353, 0.8098178843733541, 0.8097858743474644, 0.8097817132735313, 0.8097577479905789, 0.8097602780069602, 0.8097445493560684, 0.8097341414568575, 0.809741969281655, 0.8097411370668683, 0.8097358246581929, 0.8097286851313394, 0.809738183642964, 0.809716489743226, 0.8097216332060425, 0.8097025548384909, 0.8097002021109738, 0.809688221555249, 0.8096854224769443, 0.8096759323083251, 0.8096703988100071, 0.8096789483047697, 0.8096719026367267, 0.8096794634853519], "Valid": [0.7759926764467651, 0.780067422063179, 0.7548540315370574, 0.768206653637001, 0.8305171177042671, 0.8342933406660017, 0.8587058599819873, 0.8847957018814524, 0.8632021833931772, 0.861394336273237, 0.8477952240932849, 0.8439120241836267, 0.8598432338283138, 0.8312782365337544, 0.8432397785108758, 0.8422046974147533, 0.8470928476352018, 0.8441861763501693, 0.8427483175501189, 0.84280186932405, 0.8422853415754957, 0.8446928926034999, 0.8429306214613734, 0.8432762392931267, 0.8431565390513968, 0.8429397999569054, 0.8430954545811329, 0.84276844694032, 0.8426933731768659, 0.8427554071466679, 0.8426120960164317, 0.8426631157915951, 0.8426091842178491, 0.842487395077136, 0.8424967001726064, 0.842431058104561, 0.8426257055098065, 0.8425301858563056, 0.8426039936203757, 0.8425108160657347, 0.8425358828535322, 0.842421183309368, 0.8423911791239739, 0.8422907853728457, 0.8423794686296746, 0.8422600215878215, 0.842225396504677, 0.8423366778505051, 0.8422895193734619, 0.8422709091825213]}, "eer_val": {"Train": [0.44337069965212517, 0.4438860971524239, 0.450006442468754, 0.44379694379553936, 0.3886741399304207, 0.28787878787956944, 0.25951825952007485, 0.26398601398644894, 0.2558275058267122, 0.25544388609708835, 0.2630459992269157, 0.2661227661227293, 0.26171976172030353, 0.26762015204226264, 0.2528490028484326, 0.25226625226649635, 0.25498575498429676, 0.2538332689086498, 0.2543486664088971, 0.253172753171232, 0.25343175343133234, 0.2523515010952424, 0.25317275317400556, 0.25317275317179466, 0.25259000258893205, 0.2525252525245011, 0.2526547526551606, 0.2524605024600471, 0.2525900025911493, 0.2526091998453807, 0.2527195027197447, 0.2525900025900376, 0.2528024739080014, 0.252849002849615, 0.2527842527843822, 0.2528490028490057, 0.2528490028497388, 0.2529137529141442, 0.25304325304244674, 0.2529137529122714, 0.2529785029777779, 0.2531245973461228, 0.25304325304368147, 0.25310800310685655, 0.25310800310660503, 0.25299574797062235, 0.2529137529147196, 0.25304325304271547, 0.25310800310630754, 0.25297850297773966], "Valid": [0.29815209665863124, 0.2995735607683464, 0.3166311300636327, 0.30668088130748106, 0.25906183368951535, 0.2646954043462767, 0.23085144282151926, 0.2037762736017095, 0.22636815920417133, 0.2301389383683649, 0.24449182658232274, 0.2422515140719605, 0.23134328358330689, 0.25586353944443496, 0.24474527965799733, 0.24545778411114422, 0.24022743425738563, 0.24225151407196252, 0.2459132906900529, 0.2451015318847082, 0.2452025586344796, 0.24235963041946962, 0.24474527965827514, 0.24484719260922097, 0.24449182658229204, 0.24449182658222082, 0.24449182658116417, 0.24403277520496813, 0.2452025586359793, 0.2448471926096359, 0.2451015318845748, 0.24484719260918483, 0.24510153188502024, 0.24484719260909693, 0.2452025586345965, 0.2454577841111509, 0.24510153188416817, 0.2451015318845732, 0.24484719260873802, 0.24545778411113933, 0.24484719260856141, 0.2451015318845742, 0.24520255863394716, 0.24520255863660062, 0.24545778411115068, 0.24520255863627138, 0.2452025586356199, 0.24520255863681176, 0.24520255863644672, 0.24555792466295126]}, "thres": {"Train": [-0.6013084959145236, -0.8207385531022875, -0.649796322062986, -0.3527343869207842, -0.1086281257208867, -0.12744869291818856, -0.16681078076404637, -0.16420607268821172, -0.1717816591261712, -0.15579855831423564, -0.16442062753066178, -0.16349609196185433, -0.15649352967740476, -0.1725104611273387, -0.16920746862878142, -0.16494517028334796, -0.16609248518876635, -0.1673633178424597, -0.16338810609213122, -0.1650468856095418, -0.16621860861773297, -0.1665269736219296, -0.16728861629966524, -0.16609218716591936, -0.1660448908803428, -0.1658771187066916, -0.16552680730821195, -0.16575019061559834, -0.1655764430762918, -0.16549864790747112, -0.16551846265795075, -0.1654400229454055, -0.16539761068383652, -0.1654685437681118, -0.16551762819291538, -0.16546723246574446, -0.16528423130517403, -0.16535864770415679, -0.1653015017509377, -0.16526061296453295, -0.16530859470358336, -0.16545240670898878, -0.16548927128319685, -0.165403708815039, -0.1653485298151574, -0.16537754619540881, -0.16548810899298685, -0.16532975435243213, -0.16544850170592745, -0.16538815200292675], "Valid": [-0.6591765880582002, -0.9603548645985142, -0.7493706941603587, -0.41291508078551625, -0.12533581256888168, -0.14027278418850125, -0.17981252501581696, -0.17472459561658318, -0.18769264221193002, -0.17003036172114505, -0.1773060411216435, -0.17446689127463605, -0.17053546011467147, -0.1805747449395402, -0.17418186169610053, -0.17661114193108848, -0.1797404140234146, -0.17826866055664564, -0.17507597804083713, -0.17646655040862086, -0.1779810041187365, -0.17818935215473763, -0.17909903677550112, -0.1772830188278351, -0.17724873125554946, -0.17718516290201528, -0.1769092082976516, -0.1767309033192148, -0.17657892405991446, -0.17655830085282445, -0.17654721489670075, -0.17654874920849875, -0.17649301241217266, -0.17661048471936108, -0.17640450596796153, -0.17640472052995113, -0.17637620650754784, -0.17621861186408036, -0.17646723985672272, -0.17643919033450448, -0.1765084266662992, -0.17647578491088456, -0.1762428432702879, -0.17642535269261927, -0.17654918372036513, -0.17640550434597765, -0.17639927566056998, -0.17667238414299086, -0.17646659910693288, -0.176616892219066]}, "acc_val": {"Train": [0.5566750629722922, 0.5561260737583156, 0.5500226054382226, 0.5561906607246657, 0.6113156365045533, 0.7121035974940257, 0.7405541561712846, 0.7360007750435962, 0.7441387328037202, 0.7445585480849964, 0.736969579538849, 0.733901698637215, 0.7382613188658529, 0.7324161984111607, 0.7471420267390041, 0.7477556029193309, 0.7449783633662727, 0.7461732222437513, 0.7456565265129497, 0.7468513853904282, 0.7465607440418524, 0.7476587224698056, 0.7468190919072532, 0.7468513853904282, 0.7474326680875799, 0.7474972550539302, 0.7473357876380546, 0.7475618420202803, 0.7474003746044048, 0.7474003746044048, 0.7472712006717045, 0.7474003746044048, 0.7472066137053542, 0.7471420267390041, 0.7472066137053542, 0.7471420267390041, 0.7471420267390041, 0.747109733255829, 0.7469805593231286, 0.747109733255829, 0.7470451462894788, 0.7468836788736033, 0.7470128528063037, 0.7468513853904282, 0.7469159723567784, 0.7470128528063037, 0.747109733255829, 0.7468836788736033, 0.7468513853904282, 0.7469482658399536], "Valid": [0.7016545098736879, 0.7007649884362213, 0.6833303682618751, 0.6931151040740082, 0.7409713574097135, 0.7354563244974204, 0.7692581391211528, 0.7962995908201388, 0.7735278420209927, 0.7699697562711262, 0.7555595089841666, 0.7578722647215798, 0.7685465219711795, 0.7441736345845935, 0.7553816046966731, 0.7544920832592066, 0.7596513075965131, 0.7578722647215798, 0.7541362746842198, 0.7548478918341932, 0.7548478918341932, 0.7575164561465931, 0.7553816046966731, 0.7550257961216865, 0.7557374132716599, 0.7555595089841666, 0.7555595089841666, 0.7557374132716599, 0.7546699875466999, 0.7550257961216865, 0.7548478918341932, 0.7550257961216865, 0.7550257961216865, 0.7552037004091798, 0.7548478918341932, 0.7546699875466999, 0.7550257961216865, 0.7550257961216865, 0.7552037004091798, 0.7546699875466999, 0.7550257961216865, 0.7548478918341932, 0.7546699875466999, 0.7546699875466999, 0.7546699875466999, 0.7548478918341932, 0.7546699875466999, 0.7546699875466999, 0.7546699875466999, 0.7546699875466999]}, "f1_val": {"Train": [0.5572755417956655, 0.5567415911509563, 0.5506320949432405, 0.55677750185442, 0.611917198684465, 0.7126140356532671, 0.7410558886095533, 0.7364858330915772, 0.7445923729086747, 0.7450361010830324, 0.7374528575572962, 0.7343820514473599, 0.7387422235115881, 0.7328992328025272, 0.7475984784991296, 0.748235294117647, 0.7454305148125464, 0.7466477565755544, 0.7461320268179475, 0.7473165071076299, 0.747018245116369, 0.7481304796286745, 0.7472924187725631, 0.7473165071076299, 0.7478967217870611, 0.7479611900847759, 0.7478081485301702, 0.7480256583824904, 0.7478726147498711, 0.7478726147498711, 0.7477436823104693, 0.7478726147498711, 0.7476792160907684, 0.7476147498710675, 0.7476792160907684, 0.7476147498710675, 0.7476147498710675, 0.7475906526994359, 0.7474454437030591, 0.7475743802984882, 0.7475099120007737, 0.747356884992264, 0.7475020950170824, 0.7473002159827213, 0.7473809754053444, 0.7474858174316658, 0.7475906526994359, 0.747324306898775, 0.7473002159827213, 0.7473887814313346], "Valid": [0.701229289150187, 0.7006051975792097, 0.6829355183469896, 0.6926777124532336, 0.7407407407407407, 0.735173642030276, 0.7690115761353518, 0.7960819234194123, 0.773285841495993, 0.7697239536954585, 0.7553418803418803, 0.7576135351736419, 0.7682991985752448, 0.7438546490915569, 0.755120213713268, 0.7542735042735043, 0.7593944790739091, 0.7576135351736419, 0.753917378917379, 0.7546296296296298, 0.7545422158888494, 0.7572573463935887, 0.755120213713268, 0.7547640249332147, 0.7555634680434395, 0.7553418803418803, 0.7552547203420021, 0.7555634680434395, 0.7544078361531611, 0.7547640249332147, 0.7546296296296298, 0.7547640249332147, 0.7547640249332147, 0.754985754985755, 0.7545422158888494, 0.7544078361531611, 0.7547640249332147, 0.7547640249332147, 0.754985754985755, 0.7544078361531611, 0.7547640249332147, 0.7546296296296298, 0.7543203278104399, 0.7544078361531611, 0.7544078361531611, 0.7546296296296298, 0.7544078361531611, 0.7544078361531611, 0.7544078361531611, 0.7544952821790992]}}, "report_dict": {"Training_samples": "(array([0., 1.], dtype=float32), array([15444, 15522]))", "Validation_samples": "(array([0., 1.], dtype=float32), array([2814, 2807]))", "smoothing": null, "Butter_cut_off_freq": 33, "scaler": "RobustScaler", "Butter_per_win_argdict": {"filter_order": 10, "cut_off_freq": 33, "sampling_freq": 100, "filtfilt": 1}}, "ReduceLROnPlateau_args": {"mointored_metric": "val_loss", "factor": 0.2, "patience": 2, "verbose": 1, "min_lr": 1e-06}, "arg_dict": {"input_dropout_streams": [0.2, 0.2, 0.2], "filters_streams": [[64], [64], [64]], "kernels_streams": [[7], [5], [3]], "kernels_init_streams": [["glorot_normal"], ["glorot_normal"], ["glorot_normal"]], "kernels_Max_Norm_constraint_streams": [[3], [3], [3]], "conv_kernel_regularizer_streams": [["l1_l2"], ["l1_l2"], ["l1_l2"]], "conv_kernel_regularizer_strength_streams": [[[0.01, 0.01]], [[0.01, 0.01]], [[0.01, 0.01]]], "strides_streams": [[1], [1], [1]], "paddings_streams": [["same"], ["same"], ["same"]], "dropouts_streams": [[0.25], [0.25], [0.25]], "activations_streams": [["tanh"], ["tanh"], ["tanh"]], "dense_layers": [64], "dense_kernel_Max_Norm_constraints": [5], "dense_kernel_regularizer": ["l1_l2"], "dense_kernel_regularizer_strength": [[0.01, 0.01]], "dense_kernel_inits": ["he_normal"], "dense_dropouts": [0], "dense_activations": ["linear"], "loss_func_name": "k_contrastive_loss", "contrastive_loss_margin": 0.5, "optimizer_name": "Adam", "optimizer_lr": 0.001, "optimizer_decay": null, "batch_size": 256}}}}